{"levels":
        [
            {"inputs": [0.4548322887531855,0.4196837346170468,0.37512789543497516,0.31811586262263114,0.24397310929821814,0.44512337195777374,0.4702571986755264,0.48987911545190843,0.504837694149346,0.4258024005570765,0,0,0,0,0.06474862926399083,0.04617662112458554,0,0,0,0],
            "outputs": [0,1,1,1,0,1],"biases":[0.4027624420542416,0.45309166698801,0.1242804900231558,-0.46077857397066246,0.462336905221274,-0.286130112648054],
            "weights": [[-0.12330003743105025,-0.5134696029751772,0.41416718561692034,0.05759544361296656,-0.2301745934330199,0.37675836028055815],[-0.020115754303864836,0.37309269614676455,0.2135482534412027,0.04291905271885339,0.23590852923489994,-0.006092369900753618],[-0.05415527146035232,0.16843705870278042,-0.5387973984226742,0.389850268035009,-0.4642561904158755,0.13796430908688334],[-0.16987972178195626,0.5616025890224323,0.2515618006713695,0.26100127084785363,-0.4303170682208356,-0.43684159086736335],[0.2821971774518297,0.35866215852051914,0.13957341285689323,0.41059453374103494,-0.09686392411095043,-0.4964932043368047],[0.045002208178536,-0.4871222154667868,0.5943135139197939,-0.41285403489520334,-0.4292128897463004,0.6100845543338026],[0.49303188500561324,-0.022251503147092552,0.4904650269914336,-0.032044563790339875,0.212091243824396,0.15286812674871206],[-0.01384496191364712,0.4292510970556849,-0.617605308217119,-0.5747877677247683,-0.43097056931761085,0.3773051729107373],[-0.14279239332657598,0.223096664946432,0.14049847841611562,0.611128484643118,-0.650303461463747,-0.06753824211886886],[0.16421051131725403,0.47019381658787107,0.22085979149502985,0.5015238452872978,0.3828665607445726,0.10012591677719143],[-0.4947649113107655,0.8328274989673946,0.16485446260753503,-0.6648967231893923,0.33330135523416077,-0.5930283806202153],[0.43158464162642884,-0.360198784847518,-0.0916121848897524,-0.22917795251310355,-0.21065640136737546,0.17292386002522808],[-0.5611684359254873,0.07623373336945119,-0.7942094831445325,0.3879786730182589,-0.18094169997229226,-0.2331393511674156],[0.16297035927438813,-0.1654910026809821,0.5182411100109207,0.4175281432887443,0.5006546342405223,-0.40307345787700694],[-0.35916188550802264,0.41673609161808167,0.42636497299100107,-0.5480011413482986,0.4314737900407446,-0.6159025586554738],[0.5691507583220571,-0.16401059824117203,-0.45951808399198735,0.2437229259388686,-0.5483018828042695,-0.33087686478921846],[0.0016642016094068554,0.15056486908951527,0.6472290485853387,0.30291711576936947,0.4923948631916681,-0.25517511216705924],[0.5608596209047061,0.061066424885585044,-0.0581269549472582,-0.16123605106339983,0.4143581658202149,0.5078671873107891],[0.45020872421507185,0.5010373875943607,0.07194553266945508,0.5380697371551125,0.21150971800794238,-0.5542818651718979],[-0.5363884808153524,-0.2217941833380906,0.5459573157675699,-0.386850380999869,-0.0004884697037006377,0.10201518057210912]]},
            {"inputs": [0,1,1,1,0,1],
            "outputs": [1,0,1,0],
            "biases":  [-0.42294874888902023,-0.013656693150358501,-0.3931837232914077,0.7858153624869477],
            "weights": [[0.3959735196695283,0.500688438958,0.17153173464832627,0.35860198475455124],[0.16428950623321112,-0.302838860116335,-0.4206162789515083,0.08831246460528018],[0.0740655507770691,0.48737939529136926,0.26793752879483046,-0.2629799622592645],[-0.28935731538068954,-0.35884355243312627,-0.4205717787303841,-0.046858521291970594],[0.12621722239613903,0.27749314365361166,-0.6236024170650906,-0.16297982616847434],[0.06605629192293123,-0.08630859732982546,0.25951237326581056,-0.3001603939441739]]}]}